{
    "use_headpose": true,
    "model_type": "dit",
    "x_dim": 25,
    "person_dim": 63,
    "a_dim": 768,
    "hidden_size": 512,
    "num_layers": 8,
    "num_attention_heads": 8,
    "align_mask_width": 1,
    "n_diff_steps": 50,
    "batch_size": 32,
    "learning_rate": 5e-05,
    "num_epochs": -1,
    "save_interval": 1,
    "num_iterations": 4000000,
    "scheduler": "warmup_cosine",
    "warmup_iters": 10000,
    "lr_min_scale": 0.5,
    "lr_max_iters": 1000000,
    "weight_decay": 0.0001,
    "use_shape_feat": true,
    "use_mouth_open_ratio": true,
    "use_vel_loss": false,
    "vel_loss_weight": 0,
    "acc_loss_weight": 0.0,
    "use_repeat_token": false,
    "repeat_loss_weight": 0.0,
    "repeat_len": 1,
    "use_mean_exp": true,
    "null_loss_weight": 1,
    "use_headpose_vel_loss": false,
    "headpose_vel_loss_weight": 0.01,
    "zero_exp_loss_weight": false,
    "dataset": "vox2/hdtf",
    "motion_latent_type": "exp",
    "latent_mask_1": [
        4,
        6,
        7,
        22,
        33,
        34,
        40,
        43,
        45,
        46,
        48,
        51,
        52,
        53,
        57,
        58,
        59,
        60,
        61,
        62
    ],
    "latent_bound": [
        -0.05029296875,
        0.0857086181640625,
        -0.07587742805480957,
        0.058624267578125,
        -0.0004341602325439453,
        0.00019466876983642578,
        -0.038482666015625,
        0.0345458984375,
        -0.030120849609375,
        0.038360595703125,
        -3.0279159545898438e-05,
        1.3887882232666016e-05,
        -0.0364990234375,
        0.036102294921875,
        -0.043212890625,
        0.046844482421875,
        -4.3332576751708984e-05,
        1.8775463104248047e-05,
        -0.03326416015625,
        0.057373046875,
        -0.03460693359375,
        0.031707763671875,
        -0.0001958608627319336,
        0.0005192756652832031,
        -0.0728759765625,
        0.0587158203125,
        -0.04840087890625,
        0.039642333984375,
        -0.00025916099548339844,
        0.00048089027404785156,
        -0.09722900390625,
        0.12469482421875,
        -0.1556396484375,
        0.09326171875,
        -0.00018024444580078125,
        0.00037860870361328125,
        -0.0279384758323431,
        0.010650634765625,
        -0.039306640625,
        0.03802490234375,
        -1.049041748046875e-05,
        3.6954879760742188e-06,
        -0.032989501953125,
        0.044281005859375,
        -0.037261962890625,
        0.0433349609375,
        -0.00022792529489379376,
        0.0003247261047363281,
        -0.0288234855979681,
        0.006015777587890625,
        -0.0108795166015625,
        0.0134124755859375,
        -7.784366607666016e-05,
        5.2034854888916016e-05,
        -0.01531982421875,
        0.027801513671875,
        -0.036041259765625,
        0.0242156982421875,
        -8.83340835571289e-05,
        2.6464462280273438e-05,
        -0.06463623046875,
        0.0303802490234375,
        -0.0446159653365612,
        0.03619384765625,
        -0.02947998046875,
        0.030792236328125,
        -0.0159145500510931,
        0.018890380859375,
        -0.01898193359375,
        0.0264739990234375,
        -6.103515625e-05,
        3.266334533691406e-05,
        -0.0094450069591403,
        0.00604248046875,
        -0.005710510071367025,
        0.00557708740234375,
        -2.866983413696289e-05,
        1.4543533325195312e-05,
        -0.0265350341796875,
        0.01186370849609375,
        -0.0227047111839056,
        0.01386260986328125,
        -0.000133514404296875,
        6.687641143798828e-05,
        -0.01129150390625,
        0.01331329345703125,
        -0.0251922607421875,
        0.0195465087890625,
        -8.285045623779297e-06,
        6.079673767089844e-06,
        -0.0141599727794528,
        0.018341064453125,
        -0.0189971923828125,
        0.029296875,
        -6.049728108337149e-05,
        3.057718276977539e-05,
        -0.01216888427734375,
        0.02069091796875,
        -0.016754150390625,
        0.017974853515625,
        -0.00014078617095947266,
        6.842613220214844e-05,
        -0.01910400390625,
        0.016204833984375,
        -0.025634765625,
        0.04150390625,
        -0.0100250244140625,
        0.00991058349609375,
        -0.005596160888671875,
        0.01132965087890625,
        -0.0269775390625,
        0.02166748046875,
        -0.000362396240234375,
        9.059906005859375e-05,
        -0.0325927734375,
        0.038818359375,
        -0.05877685546875,
        0.076416015625,
        -0.02215576171875,
        0.019775390625,
        -0.0219573974609375,
        0.0247344970703125,
        -0.039764404296875,
        0.045,
        -0.01512908935546875,
        0.017730712890625
    ],
    "loss_weight": [
        1,
        1,
        1,
        1,
        2,
        3,
        1,
        1,
        2,
        3,
        2,
        1,
        1,
        1,
        1,
        2,
        1,
        1,
        3,
        1
    ],
    "headpose_bound": [
        -21,
        25,
        -30,
        30,
        -23,
        23,
        -0.3,
        0.3,
        -0.3,
        0.28
    ],
    "headpose_loss_weight": [
        1,
        1,
        1,
        1,
        1
    ],
    "vox2_train_start_idx": 0,
    "vox2_train_end_idx": 4200,
    "hdtf_train_start_idx": 0,
    "hdtf_train_end_idx": 337,
    "validate_only": false,
    "valid_batch_size": 512,
    "validate_interval": 1000,
    "vox2_validate_start_idx": 4200,
    "vox2_validate_end_idx": 4250
}